<?xml version="1.0"?>
<opencv_storage>
<myhaar type_id="opencv-haar-classifier">
  <size>
    24 24</size>
  <stages>
    <_>
      <trees>
        <_>
          <_>
            <feature>
              <rects>
                <_>
                  1 11 12 5 -1.</_>
                <_>
                  5 11 4 5 3.</_></rects>
              <tilted>0</tilted></feature>
            <threshold>-0.0382960513234138</threshold>
            <left_val>0.7716534733772278</left_val>
            <right_val>-0.7656198143959045</right_val></_></_>
        <_>
          <_>
            <feature>
              <rects>
                <_>
                  12 8 1 12 -1.</_>
                <_>
                  9 11 1 6 2.</_></rects>
              <tilted>1</tilted></feature>
            <threshold>6.0006109997630119e-003</threshold>
            <left_val>0.1275718957185745</left_val>
            <right_val>-0.8409913778305054</right_val></_></_>
        <_>
          <_>
            <feature>
              <rects>
                <_>
                  12 8 12 1 -1.</_>
                <_>
                  15 11 6 1 2.</_></rects>
              <tilted>1</tilted></feature>
            <threshold>-0.0156931206583977</threshold>
            <left_val>0.8512321710586548</left_val>
            <right_val>-0.7980483770370483</right_val></_></_></trees>
      <stage_threshold>0.1011769995093346</stage_threshold>
      <parent>-1</parent>
      <next>-1</next></_>
    <_>
      <trees>
        <_>
          <_>
            <feature>
              <rects>
                <_>
                  3 1 16 21 -1.</_>
                <_>
                  7 1 8 21 2.</_></rects>
              <tilted>0</tilted></feature>
            <threshold>0.0507813990116119</threshold>
            <left_val>-0.9259259104728699</left_val>
            <right_val>0.6097525954246521</right_val></_></_>
        <_>
          <_>
            <feature>
              <rects>
                <_>
                  5 3 14 20 -1.</_>
                <_>
                  5 8 14 10 2.</_></rects>
              <tilted>0</tilted></feature>
            <threshold>-0.1018553972244263</threshold>
            <left_val>0.6357238888740540</left_val>
            <right_val>-0.7715135216712952</right_val></_></_></trees>
      <stage_threshold>-0.2902019917964935</stage_threshold>
      <parent>0</parent>
      <next>-1</next></_>
    <_>
      <trees>
        <_>
          <_>
            <feature>
              <rects>
                <_>
                  0 9 4 15 -1.</_>
                <_>
                  1 9 2 15 2.</_></rects>
              <tilted>0</tilted></feature>
            <threshold>5.6984680704772472e-003</threshold>
            <left_val>-0.6484373807907105</left_val>
            <right_val>0.6535391807556152</right_val></_></_>
        <_>
          <_>
            <feature>
              <rects>
                <_>
                  17 0 2 24 -1.</_>
                <_>
                  17 6 2 12 2.</_></rects>
              <tilted>0</tilted></feature>
            <threshold>-0.0270716100931168</threshold>
            <left_val>0.5786352753639221</left_val>
            <right_val>-0.8079729080200195</right_val></_></_></trees>
      <stage_threshold>-0.1544336974620819</stage_threshold>
      <parent>1</parent>
      <next>-1</next></_>
    <_>
      <trees>
        <_>
          <_>
            <feature>
              <rects>
                <_>
                  6 7 12 10 -1.</_>
                <_>
                  10 7 4 10 3.</_></rects>
              <tilted>0</tilted></feature>
            <threshold>0.1313289999961853</threshold>
            <left_val>-0.5145618915557861</left_val>
            <right_val>0.7910407781600952</right_val></_></_>
        <_>
          <_>
            <feature>
              <rects>
                <_>
                  16 10 8 14 -1.</_>
                <_>
                  20 10 4 7 2.</_>
                <_>
                  16 17 4 7 2.</_></rects>
              <tilted>0</tilted></feature>
            <threshold>8.2307551056146622e-003</threshold>
            <left_val>-0.5944303870201111</left_val>
            <right_val>0.3689666986465454</right_val></_></_>
        <_>
          <_>
            <feature>
              <rects>
                <_>
                  0 10 8 14 -1.</_>
                <_>
                  0 10 4 7 2.</_>
                <_>
                  4 17 4 7 2.</_></rects>
              <tilted>0</tilted></feature>
            <threshold>0.0173604395240545</threshold>
            <left_val>-0.7809805870056152</left_val>
            <right_val>0.4709506928920746</right_val></_></_>
        <_>
          <_>
            <feature>
              <rects>
                <_>
                  5 3 15 9 -1.</_>
                <_>
                  10 3 5 9 3.</_></rects>
              <tilted>0</tilted></feature>
            <threshold>0.0207896903157234</threshold>
            <left_val>-0.8525900244712830</left_val>
            <right_val>0.3153024911880493</right_val></_></_></trees>
      <stage_threshold>-0.6112732887268066</stage_threshold>
      <parent>2</parent>
      <next>-1</next></_>
    <_>
      <trees>
        <_>
          <_>
            <feature>
              <rects>
                <_>
                  4 0 7 24 -1.</_>
                <_>
                  4 6 7 12 2.</_></rects>
              <tilted>0</tilted></feature>
            <threshold>-0.0465317815542221</threshold>
            <left_val>0.4285706877708435</left_val>
            <right_val>-0.8275808095932007</right_val></_></_>
        <_>
          <_>
            <feature>
              <rects>
                <_>
                  4 14 18 3 -1.</_>
                <_>
                  10 14 6 3 3.</_></rects>
              <tilted>0</tilted></feature>
            <threshold>-0.0125622600317001</threshold>
            <left_val>-1.</left_val>
            <right_val>0.1610960066318512</right_val></_></_>
        <_>
          <_>
            <feature>
              <rects>
                <_>
                  3 8 7 3 -1.</_>
                <_>
                  3 9 7 1 3.</_></rects>
              <tilted>0</tilted></feature>
            <threshold>2.2365760523825884e-003</threshold>
            <left_val>-0.5309358835220337</left_val>
            <right_val>0.6712964177131653</right_val></_></_></trees>
      <stage_threshold>4.8115849494934082e-003</stage_threshold>
      <parent>3</parent>
      <next>-1</next></_>
    <_>
      <trees>
        <_>
          <_>
            <feature>
              <rects>
                <_>
                  6 1 12 22 -1.</_>
                <_>
                  9 1 6 22 2.</_></rects>
              <tilted>0</tilted></feature>
            <threshold>0.0894671678543091</threshold>
            <left_val>-0.6644294261932373</left_val>
            <right_val>0.5183218717575073</right_val></_></_>
        <_>
          <_>
            <feature>
              <rects>
                <_>
                  13 3 4 12 -1.</_>
                <_>
                  14 4 2 12 2.</_></rects>
              <tilted>1</tilted></feature>
            <threshold>0.0121996803209186</threshold>
            <left_val>-0.1151779964566231</left_val>
            <right_val>0.4984853863716126</right_val></_></_>
        <_>
          <_>
            <feature>
              <rects>
                <_>
                  10 6 10 2 -1.</_>
                <_>
                  10 6 10 1 2.</_></rects>
              <tilted>1</tilted></feature>
            <threshold>-7.9130940139293671e-003</threshold>
            <left_val>0.6348016858100891</left_val>
            <right_val>-0.5418819785118103</right_val></_></_></trees>
      <stage_threshold>-0.7078260183334351</stage_threshold>
      <parent>4</parent>
      <next>-1</next></_>
    <_>
      <trees>
        <_>
          <_>
            <feature>
              <rects>
                <_>
                  0 7 1 9 -1.</_>
                <_>
                  0 10 1 3 3.</_></rects>
              <tilted>0</tilted></feature>
            <threshold>-1.8407800234854221e-003</threshold>
            <left_val>-1.</left_val>
            <right_val>0.2655074894428253</right_val></_></_>
        <_>
          <_>
            <feature>
              <rects>
                <_>
                  14 1 4 14 -1.</_>
                <_>
                  15 2 2 14 2.</_></rects>
              <tilted>1</tilted></feature>
            <threshold>0.0359332486987114</threshold>
            <left_val>-0.1434613019227982</left_val>
            <right_val>0.8371008038520813</right_val></_></_>
        <_>
          <_>
            <feature>
              <rects>
                <_>
                  10 1 14 4 -1.</_>
                <_>
                  9 2 14 2 2.</_></rects>
              <tilted>1</tilted></feature>
            <threshold>-0.0274871997535229</threshold>
            <left_val>0.8269947767257690</left_val>
            <right_val>-0.3468005061149597</right_val></_></_>
        <_>
          <_>
            <feature>
              <rects>
                <_>
                  22 12 2 11 -1.</_>
                <_>
                  22 12 1 11 2.</_></rects>
              <tilted>0</tilted></feature>
            <threshold>1.5477209817618132e-003</threshold>
            <left_val>-0.3152300119400024</left_val>
            <right_val>0.4390259087085724</right_val></_></_>
        <_>
          <_>
            <feature>
              <rects>
                <_>
                  0 12 2 11 -1.</_>
                <_>
                  1 12 1 11 2.</_></rects>
              <tilted>0</tilted></feature>
            <threshold>4.5764571987092495e-003</threshold>
            <left_val>-0.5106946229934692</left_val>
            <right_val>0.6546717882156372</right_val></_></_></trees>
      <stage_threshold>-0.2964228987693787</stage_threshold>
      <parent>5</parent>
      <next>-1</next></_>
    <_>
      <trees>
        <_>
          <_>
            <feature>
              <rects>
                <_>
                  11 0 2 4 -1.</_>
                <_>
                  11 2 2 2 2.</_></rects>
              <tilted>0</tilted></feature>
            <threshold>1.0738880373537540e-003</threshold>
            <left_val>0.2911387085914612</left_val>
            <right_val>-0.9999908804893494</right_val></_></_>
        <_>
          <_>
            <feature>
              <rects>
                <_>
                  12 9 2 12 -1.</_>
                <_>
                  9 12 2 6 2.</_></rects>
              <tilted>1</tilted></feature>
            <threshold>-0.0378560796380043</threshold>
            <left_val>0.1458518058061600</left_val>
            <right_val>-0.2083379030227661</right_val></_></_>
        <_>
          <_>
            <feature>
              <rects>
                <_>
                  9 5 6 8 -1.</_>
                <_>
                  9 9 6 4 2.</_></rects>
              <tilted>0</tilted></feature>
            <threshold>4.2155119590461254e-003</threshold>
            <left_val>0.3010711967945099</left_val>
            <right_val>-0.9063401222229004</right_val></_></_></trees>
      <stage_threshold>-0.4693495929241180</stage_threshold>
      <parent>6</parent>
      <next>-1</next></_>
    <_>
      <trees>
        <_>
          <_>
            <feature>
              <rects>
                <_>
                  10 7 4 3 -1.</_>
                <_>
                  10 8 4 1 3.</_></rects>
              <tilted>0</tilted></feature>
            <threshold>6.0700031463056803e-004</threshold>
            <left_val>0.2781949937343597</left_val>
            <right_val>-0.9999917149543762</right_val></_></_>
        <_>
          <_>
            <feature>
              <rects>
                <_>
                  12 7 1 12 -1.</_>
                <_>
                  8 11 1 4 3.</_></rects>
              <tilted>1</tilted></feature>
            <threshold>-0.0273898392915726</threshold>
            <left_val>0.1498011052608490</left_val>
            <right_val>-0.2981429100036621</right_val></_></_>
        <_>
          <_>
            <feature>
              <rects>
                <_>
                  12 7 12 1 -1.</_>
                <_>
                  16 11 4 1 3.</_></rects>
              <tilted>1</tilted></feature>
            <threshold>-0.0317525416612625</threshold>
            <left_val>0.6938803195953369</left_val>
            <right_val>-0.4110738039016724</right_val></_></_>
        <_>
          <_>
            <feature>
              <rects>
                <_>
                  15 15 3 6 -1.</_>
                <_>
                  15 17 3 2 3.</_></rects>
              <tilted>0</tilted></feature>
            <threshold>4.6393792144954205e-003</threshold>
            <left_val>-0.2096884995698929</left_val>
            <right_val>0.3716078996658325</right_val></_></_>
        <_>
          <_>
            <feature>
              <rects>
                <_>
                  6 15 3 6 -1.</_>
                <_>
                  6 17 3 2 3.</_></rects>
              <tilted>0</tilted></feature>
            <threshold>6.2182149849832058e-003</threshold>
            <left_val>-0.5147690773010254</left_val>
            <right_val>0.6782097220420837</right_val></_></_></trees>
      <stage_threshold>-0.1262388974428177</stage_threshold>
      <parent>7</parent>
      <next>-1</next></_>
    <_>
      <trees>
        <_>
          <_>
            <feature>
              <rects>
                <_>
                  11 7 2 2 -1.</_>
                <_>
                  11 8 2 1 2.</_></rects>
              <tilted>0</tilted></feature>
            <threshold>-6.1599817126989365e-004</threshold>
            <left_val>-1.</left_val>
            <right_val>0.2878775000572205</right_val></_></_>
        <_>
          <_>
            <feature>
              <rects>
                <_>
                  10 9 6 13 -1.</_>
                <_>
                  12 9 2 13 3.</_></rects>
              <tilted>0</tilted></feature>
            <threshold>-0.0246132593601942</threshold>
            <left_val>0.7310636043548584</left_val>
            <right_val>-0.1759891062974930</right_val></_></_>
        <_>
          <_>
            <feature>
              <rects>
                <_>
                  1 2 12 14 -1.</_>
                <_>
                  4 2 6 14 2.</_></rects>
              <tilted>0</tilted></feature>
            <threshold>-0.0587305314838886</threshold>
            <left_val>0.4132555127143860</left_val>
            <right_val>-0.6613451242446899</right_val></_></_>
        <_>
          <_>
            <feature>
              <rects>
                <_>
                  17 12 2 3 -1.</_>
                <_>
                  17 13 2 1 3.</_></rects>
              <tilted>0</tilted></feature>
            <threshold>-3.2153269276022911e-003</threshold>
            <left_val>0.6981403827667236</left_val>
            <right_val>-0.2193975001573563</right_val></_></_>
        <_>
          <_>
            <feature>
              <rects>
                <_>
                  4 11 14 4 -1.</_>
                <_>
                  4 12 14 2 2.</_></rects>
              <tilted>0</tilted></feature>
            <threshold>6.2734438106417656e-003</threshold>
            <left_val>-0.3554730117321014</left_val>
            <right_val>0.7911760807037354</right_val></_></_></trees>
      <stage_threshold>-0.0497265495359898</stage_threshold>
      <parent>8</parent>
      <next>-1</next></_>
    <_>
      <trees>
        <_>
          <_>
            <feature>
              <rects>
                <_>
                  0 12 22 12 -1.</_>
                <_>
                  0 18 22 6 2.</_></rects>
              <tilted>0</tilted></feature>
            <threshold>0.1434396058320999</threshold>
            <left_val>-0.5027619004249573</left_val>
            <right_val>0.5723232030868530</right_val></_></_>
        <_>
          <_>
            <feature>
              <rects>
                <_>
                  11 2 4 12 -1.</_>
                <_>
                  11 5 4 6 2.</_></rects>
              <tilted>0</tilted></feature>
            <threshold>0.0132011603564024</threshold>
            <left_val>0.1863576024770737</left_val>
            <right_val>-0.9999876022338867</right_val></_></_>
        <_>
          <_>
            <feature>
              <rects>
                <_>
                  0 2 12 2 -1.</_>
                <_>
                  0 2 6 1 2.</_>
                <_>
                  6 3 6 1 2.</_></rects>
              <tilted>0</tilted></feature>
            <threshold>8.4310222882777452e-004</threshold>
            <left_val>0.2523661851882935</left_val>
            <right_val>-1.0000029802322388</right_val></_></_></trees>
      <stage_threshold>-0.0640380680561066</stage_threshold>
      <parent>9</parent>
      <next>-1</next></_>
    <_>
      <trees>
        <_>
          <_>
            <feature>
              <rects>
                <_>
                  0 11 22 4 -1.</_>
                <_>
                  0 11 11 2 2.</_>
                <_>
                  11 13 11 2 2.</_></rects>
              <tilted>0</tilted></feature>
            <threshold>-0.0206409692764282</threshold>
            <left_val>0.8279569149017334</left_val>
            <right_val>-0.3117395043373108</right_val></_></_>
        <_>
          <_>
            <feature>
              <rects>
                <_>
                  17 7 2 6 -1.</_>
                <_>
                  17 9 2 2 3.</_></rects>
              <tilted>0</tilted></feature>
            <threshold>5.7149329222738743e-003</threshold>
            <left_val>-0.0812249481678009</left_val>
            <right_val>0.5895153284072876</right_val></_></_>
        <_>
          <_>
            <feature>
              <rects>
                <_>
                  0 8 1 6 -1.</_>
                <_>
                  0 10 1 2 3.</_></rects>
              <tilted>0</tilted></feature>
            <threshold>2.0378211047500372e-003</threshold>
            <left_val>0.2859871983528137</left_val>
            <right_val>-0.9239373207092285</right_val></_></_>
        <_>
          <_>
            <feature>
              <rects>
                <_>
                  17 7 2 6 -1.</_>
                <_>
                  17 9 2 2 3.</_></rects>
              <tilted>0</tilted></feature>
            <threshold>-3.4982899669557810e-003</threshold>
            <left_val>0.4101715087890625</left_val>
            <right_val>-0.3325693011283875</right_val></_></_>
        <_>
          <_>
            <feature>
              <rects>
                <_>
                  12 9 12 3 -1.</_>
                <_>
                  16 13 4 3 3.</_></rects>
              <tilted>1</tilted></feature>
            <threshold>-0.0145428199321032</threshold>
            <left_val>0.3816953003406525</left_val>
            <right_val>-0.7721912860870361</right_val></_></_></trees>
      <stage_threshold>-0.4689970016479492</stage_threshold>
      <parent>10</parent>
      <next>-1</next></_></stages></myhaar>
</opencv_storage>
